digraph Tree {
node [shape=box, style="filled, rounded", color="black", fontname="helvetica"] ;
edge [fontname="helvetica"] ;
0 [label="sepal length (cm) <= 5.45\ngini = 0.67\nsamples = 95\nvalue = [47, 49, 54]\nclass = virginica", fillcolor="#f9f5fe"] ;
1 [label="sepal width (cm) <= 2.85\ngini = 0.29\nsamples = 33\nvalue = [43, 9, 0]\nclass = setosa", fillcolor="#ea9b62"] ;
0 -> 1 [labeldistance=2.5, labelangle=45, headlabel="True"] ;
2 [label="sepal length (cm) <= 4.7\ngini = 0.22\nsamples = 5\nvalue = [1, 7, 0]\nclass = versicolor", fillcolor="#55e993"] ;
1 -> 2 ;
3 [label="gini = 0.0\nsamples = 1\nvalue = [1, 0, 0]\nclass = setosa", fillcolor="#e58139"] ;
2 -> 3 ;
4 [label="gini = 0.0\nsamples = 4\nvalue = [0, 7, 0]\nclass = versicolor", fillcolor="#39e581"] ;
2 -> 4 ;
5 [label="petal length (cm) <= 3.2\ngini = 0.09\nsamples = 28\nvalue = [42, 2, 0]\nclass = setosa", fillcolor="#e68742"] ;
1 -> 5 ;
6 [label="gini = 0.0\nsamples = 27\nvalue = [42, 0, 0]\nclass = setosa", fillcolor="#e58139"] ;
5 -> 6 ;
7 [label="gini = 0.0\nsamples = 1\nvalue = [0, 2, 0]\nclass = versicolor", fillcolor="#39e581"] ;
5 -> 7 ;
8 [label="petal length (cm) <= 4.75\ngini = 0.53\nsamples = 62\nvalue = [4, 40, 54]\nclass = virginica", fillcolor="#e1cff9"] ;
0 -> 8 [labeldistance=2.5, labelangle=-45, headlabel="False"] ;
9 [label="petal length (cm) <= 2.6\ngini = 0.18\nsamples = 27\nvalue = [4, 37, 0]\nclass = versicolor", fillcolor="#4ee88f"] ;
8 -> 9 ;
10 [label="gini = 0.0\nsamples = 2\nvalue = [4, 0, 0]\nclass = setosa", fillcolor="#e58139"] ;
9 -> 10 ;
11 [label="gini = 0.0\nsamples = 25\nvalue = [0, 37, 0]\nclass = versicolor", fillcolor="#39e581"] ;
9 -> 11 ;
12 [label="petal width (cm) <= 1.7\ngini = 0.1\nsamples = 35\nvalue = [0, 3, 54]\nclass = virginica", fillcolor="#8844e6"] ;
8 -> 12 ;
13 [label="petal length (cm) <= 5.0\ngini = 0.41\nsamples = 5\nvalue = [0, 2, 5]\nclass = virginica", fillcolor="#b388ef"] ;
12 -> 13 ;
14 [label="gini = 0.0\nsamples = 1\nvalue = [0, 1, 0]\nclass = versicolor", fillcolor="#39e581"] ;
13 -> 14 ;
15 [label="sepal length (cm) <= 6.05\ngini = 0.28\nsamples = 4\nvalue = [0, 1, 5]\nclass = virginica", fillcolor="#9a61ea"] ;
13 -> 15 ;
16 [label="gini = 0.0\nsamples = 1\nvalue = [0, 1, 0]\nclass = versicolor", fillcolor="#39e581"] ;
15 -> 16 ;
17 [label="gini = 0.0\nsamples = 3\nvalue = [0, 0, 5]\nclass = virginica", fillcolor="#8139e5"] ;
15 -> 17 ;
18 [label="petal length (cm) <= 4.85\ngini = 0.04\nsamples = 30\nvalue = [0, 1, 49]\nclass = virginica", fillcolor="#843de6"] ;
12 -> 18 ;
19 [label="sepal width (cm) <= 3.1\ngini = 0.38\nsamples = 3\nvalue = [0, 1, 3]\nclass = virginica", fillcolor="#ab7bee"] ;
18 -> 19 ;
20 [label="gini = 0.0\nsamples = 2\nvalue = [0, 0, 3]\nclass = virginica", fillcolor="#8139e5"] ;
19 -> 20 ;
21 [label="gini = 0.0\nsamples = 1\nvalue = [0, 1, 0]\nclass = versicolor", fillcolor="#39e581"] ;
19 -> 21 ;
22 [label="gini = 0.0\nsamples = 27\nvalue = [0, 0, 46]\nclass = virginica", fillcolor="#8139e5"] ;
18 -> 22 ;
}